Language model created by QuickLM on Sat Jul  9 13:40:30 EDT 2016
Copyright (c) 1996-2010 Carnegie Mellon University and Alexander I. Rudnicky

The model is in standard ARPA format, designed by Doug Paul while he was at MITRE.

The code that was used to produce this language model is available in Open Source.
Please visit http://www.speech.cs.cmu.edu/tools/ for more information

The (fixed) discount mass is 0.5. The backoffs are computed using the ratio method.
This model based on a corpus of 6 sentences and 8 words

\data\
ngram 1=8
ngram 2=12
ngram 3=6

\1-grams:
-0.7782 </s> -0.3010
-0.7782 <s> -0.2218
-1.5563 BANGOR -0.2218
-1.5563 BELFAST -0.2218
-1.5563 BREWER -0.2218
-1.5563 PORTLAND -0.2218
-1.5563 SEARPORT -0.2218
-1.5563 SEARSMONT -0.2218

\2-grams:
-1.0792 <s> BANGOR 0.0000
-1.0792 <s> BELFAST 0.0000
-1.0792 <s> BREWER 0.0000
-1.0792 <s> PORTLAND 0.0000
-1.0792 <s> SEARPORT 0.0000
-1.0792 <s> SEARSMONT 0.0000
-0.3010 BANGOR </s> -0.3010
-0.3010 BELFAST </s> -0.3010
-0.3010 BREWER </s> -0.3010
-0.3010 PORTLAND </s> -0.3010
-0.3010 SEARPORT </s> -0.3010
-0.3010 SEARSMONT </s> -0.3010

\3-grams:
-0.3010 <s> BANGOR </s>
-0.3010 <s> BELFAST </s>
-0.3010 <s> BREWER </s>
-0.3010 <s> PORTLAND </s>
-0.3010 <s> SEARPORT </s>
-0.3010 <s> SEARSMONT </s>

\end\
